<?xml version="1.0"?>
<opencv_storage>
<cascade>
  <stageType>BOOST</stageType>
  <featureType>HAAR</featureType>
  <height>64</height>
  <width>64</width>
  <stageParams>
    <boostType>GAB</boostType>
    <minHitRate>9.8000001907348633e-01</minHitRate>
    <maxFalseAlarm>5.0000000000000000e-01</maxFalseAlarm>
    <weightTrimRate>9.4999999999999996e-01</weightTrimRate>
    <maxDepth>1</maxDepth>
    <maxWeakCount>100</maxWeakCount></stageParams>
  <featureParams>
    <maxCatCount>0</maxCatCount>
    <featSize>1</featSize>
    <mode>ALL</mode></featureParams>
  <stageNum>14</stageNum>
  <stages>
    <!-- stage 0 -->
    <_>
      <maxWeakCount>4</maxWeakCount>
      <stageThreshold>-1.0811105966567993e+00</stageThreshold>
      <weakClassifiers>
        <_>
          <internalNodes>
            0 -1 9 9.5333829522132874e-02</internalNodes>
          <leafValues>
            -8.5086548328399658e-01 -5.7692307978868484e-02</leafValues></_>
        <_>
          <internalNodes>
            0 -1 29 -8.6652711033821106e-03</internalNodes>
          <leafValues>
            6.4884418249130249e-01 -4.5261538028717041e-01</leafValues></_>
        <_>
          <internalNodes>
            0 -1 31 -6.8326876498758793e-03</internalNodes>
          <leafValues>
            -8.3273136615753174e-01 1.6809640824794769e-01</leafValues></_>
        <_>
          <internalNodes>
            0 -1 5 -1.1802795343101025e-03</internalNodes>
          <leafValues>
            -7.3889929056167603e-01 1.7071345448493958e-01</leafValues></_></weakClassifiers></_>
    <!-- stage 1 -->
    <_>
      <maxWeakCount>3</maxWeakCount>
      <stageThreshold>-1.1491754055023193e+00</stageThreshold>
      <weakClassifiers>
        <_>
          <internalNodes>
            0 -1 21 -7.0852576754987240e-03</internalNodes>
          <leafValues>
            7.5999999046325684e-01 -8.0000001192092896e-01</leafValues></_>
        <_>
          <internalNodes>
            0 -1 33 -1.6718963161110878e-03</internalNodes>
          <leafValues>
            -7.5179111957550049e-01 1.6068129241466522e-01</leafValues></_>
        <_>
          <internalNodes>
            0 -1 55 -6.7486683838069439e-03</internalNodes>
          <leafValues>
            4.0261569619178772e-01 -4.4355189800262451e-01</leafValues></_></weakClassifiers></_>
    <!-- stage 2 -->
    <_>
      <maxWeakCount>5</maxWeakCount>
      <stageThreshold>-1.4868861436843872e+00</stageThreshold>
      <weakClassifiers>
        <_>
          <internalNodes>
            0 -1 3 -3.4766823053359985e-02</internalNodes>
          <leafValues>
            6.0975611209869385e-01 -8.2309579849243164e-01</leafValues></_>
        <_>
          <internalNodes>
            0 -1 11 -3.2004091888666153e-02</internalNodes>
          <leafValues>
            6.5617620944976807e-01 -4.8155611753463745e-01</leafValues></_>
        <_>
          <internalNodes>
            0 -1 47 3.6075423122383654e-04</internalNodes>
          <leafValues>
            2.6574701070785522e-01 -7.5173842906951904e-01</leafValues></_>
        <_>
          <internalNodes>
            0 -1 59 4.5787531416863203e-04</internalNodes>
          <leafValues>
            2.1389052271842957e-01 -7.5713908672332764e-01</leafValues></_>
        <_>
          <internalNodes>
            0 -1 1 8.5245315858628601e-05</internalNodes>
          <leafValues>
            3.0915787816047668e-01 -5.8135390281677246e-01</leafValues></_></weakClassifiers></_>
    <!-- stage 3 -->
    <_>
      <maxWeakCount>4</maxWeakCount>
      <stageThreshold>-8.3493649959564209e-01</stageThreshold>
      <weakClassifiers>
        <_>
          <internalNodes>
            0 -1 14 -2.2936968598514795e-03</internalNodes>
          <leafValues>
            4.7999998927116394e-01 -8.3105587959289551e-01</leafValues></_>
        <_>
          <internalNodes>
            0 -1 16 9.2672910541296005e-03</internalNodes>
          <leafValues>
            -5.0014764070510864e-01 5.7198244333267212e-01</leafValues></_>
        <_>
          <internalNodes>
            0 -1 52 4.5571953523904085e-04</internalNodes>
          <leafValues>
            3.0009815096855164e-01 -8.1675094366073608e-01</leafValues></_>
        <_>
          <internalNodes>
            0 -1 60 -2.4388487508986145e-04</internalNodes>
          <leafValues>
            -9.2491865158081055e-01 2.4088792502880096e-01</leafValues></_></weakClassifiers></_>
    <!-- stage 4 -->
    <_>
      <maxWeakCount>3</maxWeakCount>
      <stageThreshold>-1.0346608161926270e+00</stageThreshold>
      <weakClassifiers>
        <_>
          <internalNodes>
            0 -1 20 -2.2166097536683083e-02</internalNodes>
          <leafValues>
            9.4117647409439087e-01 -8.2460415363311768e-01</leafValues></_>
        <_>
          <internalNodes>
            0 -1 45 -3.8487695157527924e-02</internalNodes>
          <leafValues>
            7.5399279594421387e-01 -5.9975641965866089e-01</leafValues></_>
        <_>
          <internalNodes>
            0 -1 6 -1.9321436993777752e-03</internalNodes>
          <leafValues>
            -6.8116128444671631e-01 3.8969978690147400e-01</leafValues></_></weakClassifiers></_>
    <!-- stage 5 -->
    <_>
      <maxWeakCount>3</maxWeakCount>
      <stageThreshold>-1.4223189353942871e+00</stageThreshold>
      <weakClassifiers>
        <_>
          <internalNodes>
            0 -1 25 -1.5714839100837708e-03</internalNodes>
          <leafValues>
            7.5757575035095215e-01 -8.1508517265319824e-01</leafValues></_>
        <_>
          <internalNodes>
            0 -1 39 2.2032673587091267e-04</internalNodes>
          <leafValues>
            1.3255971670150757e-01 -8.6157768964767456e-01</leafValues></_>
        <_>
          <internalNodes>
            0 -1 23 -1.9450390245765448e-03</internalNodes>
          <leafValues>
            -6.6541039943695068e-01 2.5434395670890808e-01</leafValues></_></weakClassifiers></_>
    <!-- stage 6 -->
    <_>
      <maxWeakCount>5</maxWeakCount>
      <stageThreshold>-1.2995710372924805e+00</stageThreshold>
      <weakClassifiers>
        <_>
          <internalNodes>
            0 -1 35 4.1009381413459778e-02</internalNodes>
          <leafValues>
            -8.1021898984909058e-01 6.3636362552642822e-01</leafValues></_>
        <_>
          <internalNodes>
            0 -1 41 -6.4342515543103218e-03</internalNodes>
          <leafValues>
            7.6462227106094360e-01 -4.5094084739685059e-01</leafValues></_>
        <_>
          <internalNodes>
            0 -1 56 1.8138674204237759e-04</internalNodes>
          <leafValues>
            3.1929326057434082e-01 -6.6897159814834595e-01</leafValues></_>
        <_>
          <internalNodes>
            0 -1 30 -1.4112438657321036e-04</internalNodes>
          <leafValues>
            -4.8751598596572876e-01 3.7771812081336975e-01</leafValues></_>
        <_>
          <internalNodes>
            0 -1 12 -8.0500810872763395e-04</internalNodes>
          <leafValues>
            -6.7776006460189819e-01 2.5284221768379211e-01</leafValues></_></weakClassifiers></_>
    <!-- stage 7 -->
    <_>
      <maxWeakCount>5</maxWeakCount>
      <stageThreshold>-1.2818186283111572e+00</stageThreshold>
      <weakClassifiers>
        <_>
          <internalNodes>
            0 -1 32 2.6203155517578125e-02</internalNodes>
          <leafValues>
            -8.1219512224197388e-01 6.0000002384185791e-01</leafValues></_>
        <_>
          <internalNodes>
            0 -1 46 3.2447045668959618e-03</internalNodes>
          <leafValues>
            -5.2713418006896973e-01 4.4622558355331421e-01</leafValues></_>
        <_>
          <internalNodes>
            0 -1 48 5.9094803873449564e-04</internalNodes>
          <leafValues>
            1.8071728944778442e-01 -8.8663536310195923e-01</leafValues></_>
        <_>
          <internalNodes>
            0 -1 42 8.1123840063810349e-03</internalNodes>
          <leafValues>
            -3.2837507128715515e-01 6.1440598964691162e-01</leafValues></_>
        <_>
          <internalNodes>
            0 -1 13 8.8591780513525009e-03</internalNodes>
          <leafValues>
            2.9916137456893921e-01 -6.9813370704650879e-01</leafValues></_></weakClassifiers></_>
    <!-- stage 8 -->
    <_>
      <maxWeakCount>6</maxWeakCount>
      <stageThreshold>-1.2914929389953613e+00</stageThreshold>
      <weakClassifiers>
        <_>
          <internalNodes>
            0 -1 37 1.1218659579753876e-02</internalNodes>
          <leafValues>
            -8.0072027444839478e-01 1.</leafValues></_>
        <_>
          <internalNodes>
            0 -1 28 5.2924156188964844e-03</internalNodes>
          <leafValues>
            -6.1887538433074951e-01 3.1670036911964417e-01</leafValues></_>
        <_>
          <internalNodes>
            0 -1 57 1.8012456130236387e-03</internalNodes>
          <leafValues>
            2.6821312308311462e-01 -6.4592468738555908e-01</leafValues></_>
        <_>
          <internalNodes>
            0 -1 44 -7.3443877045065165e-04</internalNodes>
          <leafValues>
            -6.0055214166641235e-01 2.8320509195327759e-01</leafValues></_>
        <_>
          <internalNodes>
            0 -1 49 -4.2469569598324597e-04</internalNodes>
          <leafValues>
            -5.0728756189346313e-01 3.4185236692428589e-01</leafValues></_>
        <_>
          <internalNodes>
            0 -1 58 -7.3903989978134632e-03</internalNodes>
          <leafValues>
            -8.5160374641418457e-01 2.1402347087860107e-01</leafValues></_></weakClassifiers></_>
    <!-- stage 9 -->
    <_>
      <maxWeakCount>4</maxWeakCount>
      <stageThreshold>-1.1820104122161865e+00</stageThreshold>
      <weakClassifiers>
        <_>
          <internalNodes>
            0 -1 19 2.7354925870895386e-02</internalNodes>
          <leafValues>
            -8.0505412817001343e-01 1.</leafValues></_>
        <_>
          <internalNodes>
            0 -1 26 -3.0530199408531189e-02</internalNodes>
          <leafValues>
            8.9787518978118896e-01 -4.5946055650711060e-01</leafValues></_>
        <_>
          <internalNodes>
            0 -1 24 -2.1653758361935616e-02</internalNodes>
          <leafValues>
            -6.1545461416244507e-01 3.4021794795989990e-01</leafValues></_>
        <_>
          <internalNodes>
            0 -1 34 -9.3623937573283911e-05</internalNodes>
          <leafValues>
            7.5597500801086426e-01 -2.5771364569664001e-01</leafValues></_></weakClassifiers></_>
    <!-- stage 10 -->
    <_>
      <maxWeakCount>4</maxWeakCount>
      <stageThreshold>-8.7534856796264648e-01</stageThreshold>
      <weakClassifiers>
        <_>
          <internalNodes>
            0 -1 2 2.3201629519462585e-01</internalNodes>
          <leafValues>
            -8.4500002861022949e-01 5.6363636255264282e-01</leafValues></_>
        <_>
          <internalNodes>
            0 -1 40 9.4412977341562510e-04</internalNodes>
          <leafValues>
            -5.3077262639999390e-01 6.1513769626617432e-01</leafValues></_>
        <_>
          <internalNodes>
            0 -1 61 3.0666135717183352e-04</internalNodes>
          <leafValues>
            2.4628792703151703e-01 -7.9254573583602905e-01</leafValues></_>
        <_>
          <internalNodes>
            0 -1 50 4.0319748222827911e-04</internalNodes>
          <leafValues>
            2.5413614511489868e-01 -7.3122847080230713e-01</leafValues></_></weakClassifiers></_>
    <!-- stage 11 -->
    <_>
      <maxWeakCount>5</maxWeakCount>
      <stageThreshold>-1.2587187290191650e+00</stageThreshold>
      <weakClassifiers>
        <_>
          <internalNodes>
            0 -1 43 6.9940119981765747e-02</internalNodes>
          <leafValues>
            -8.0505412817001343e-01 1.</leafValues></_>
        <_>
          <internalNodes>
            0 -1 0 -3.6518281558528543e-04</internalNodes>
          <leafValues>
            -7.1791386604309082e-01 1.5974694490432739e-01</leafValues></_>
        <_>
          <internalNodes>
            0 -1 53 2.6109677273780107e-03</internalNodes>
          <leafValues>
            3.2206043601036072e-01 -6.6187709569931030e-01</leafValues></_>
        <_>
          <internalNodes>
            0 -1 36 -4.4209356419742107e-03</internalNodes>
          <leafValues>
            7.5549846887588501e-01 -3.4969899058341980e-01</leafValues></_>
        <_>
          <internalNodes>
            0 -1 27 1.5131836989894509e-03</internalNodes>
          <leafValues>
            4.0083548426628113e-01 -5.8577299118041992e-01</leafValues></_></weakClassifiers></_>
    <!-- stage 12 -->
    <_>
      <maxWeakCount>6</maxWeakCount>
      <stageThreshold>-1.0062180757522583e+00</stageThreshold>
      <weakClassifiers>
        <_>
          <internalNodes>
            0 -1 4 2.6025295257568359e-01</internalNodes>
          <leafValues>
            -8.1530982255935669e-01 8.1250000000000000e-01</leafValues></_>
        <_>
          <internalNodes>
            0 -1 15 -4.8612412065267563e-02</internalNodes>
          <leafValues>
            6.8167018890380859e-01 -4.6332272887229919e-01</leafValues></_>
        <_>
          <internalNodes>
            0 -1 8 -4.0416298434138298e-03</internalNodes>
          <leafValues>
            -7.9348945617675781e-01 2.3056393861770630e-01</leafValues></_>
        <_>
          <internalNodes>
            0 -1 10 -5.6581979151815176e-04</internalNodes>
          <leafValues>
            -8.1964921951293945e-01 1.8651661276817322e-01</leafValues></_>
        <_>
          <internalNodes>
            0 -1 18 -1.8954125698655844e-03</internalNodes>
          <leafValues>
            -8.5336971282958984e-01 2.0210731029510498e-01</leafValues></_>
        <_>
          <internalNodes>
            0 -1 51 2.0705780480057001e-03</internalNodes>
          <leafValues>
            -3.3066737651824951e-01 6.7728000879287720e-01</leafValues></_></weakClassifiers></_>
    <!-- stage 13 -->
    <_>
      <maxWeakCount>5</maxWeakCount>
      <stageThreshold>-1.2196437120437622e+00</stageThreshold>
      <weakClassifiers>
        <_>
          <internalNodes>
            0 -1 7 1.4793530106544495e-01</internalNodes>
          <leafValues>
            -8.3850932121276855e-01 6.0000002384185791e-01</leafValues></_>
        <_>
          <internalNodes>
            0 -1 22 9.0574576461222023e-05</internalNodes>
          <leafValues>
            -4.8226797580718994e-01 1.</leafValues></_>
        <_>
          <internalNodes>
            0 -1 38 1.1626062914729118e-03</internalNodes>
          <leafValues>
            3.8011658191680908e-01 -6.9045037031173706e-01</leafValues></_>
        <_>
          <internalNodes>
            0 -1 17 2.3571128258481622e-04</internalNodes>
          <leafValues>
            3.6412250995635986e-01 -6.6677218675613403e-01</leafValues></_>
        <_>
          <internalNodes>
            0 -1 54 9.0714485850185156e-04</internalNodes>
          <leafValues>
            4.2746138572692871e-01 -5.8491837978363037e-01</leafValues></_></weakClassifiers></_></stages>
  <features>
    <_>
      <rects>
        <_>
          0 53 26 4 -1.</_>
        <_>
          0 53 13 2 2.</_>
        <_>
          13 55 13 2 2.</_></rects>
      <tilted>0</tilted></_>
    <_>
      <rects>
        <_>
          2 3 2 4 -1.</_>
        <_>
          2 4 2 2 2.</_></rects>
      <tilted>0</tilted></_>
    <_>
      <rects>
        <_>
          3 11 53 52 -1.</_>
        <_>
          3 37 53 26 2.</_></rects>
      <tilted>0</tilted></_>
    <_>
      <rects>
        <_>
          5 0 24 35 -1.</_>
        <_>
          13 0 8 35 3.</_></rects>
      <tilted>0</tilted></_>
    <_>
      <rects>
        <_>
          7 13 51 48 -1.</_>
        <_>
          7 37 51 24 2.</_></rects>
      <tilted>0</tilted></_>
    <_>
      <rects>
        <_>
          7 52 4 10 -1.</_>
        <_>
          7 57 4 5 2.</_></rects>
      <tilted>0</tilted></_>
    <_>
      <rects>
        <_>
          7 57 36 5 -1.</_>
        <_>
          19 57 12 5 3.</_></rects>
      <tilted>0</tilted></_>
    <_>
      <rects>
        <_>
          8 15 36 44 -1.</_>
        <_>
          8 37 36 22 2.</_></rects>
      <tilted>0</tilted></_>
    <_>
      <rects>
        <_>
          8 50 21 13 -1.</_>
        <_>
          15 50 7 13 3.</_></rects>
      <tilted>0</tilted></_>
    <_>
      <rects>
        <_>
          10 13 26 44 -1.</_>
        <_>
          10 35 26 22 2.</_></rects>
      <tilted>0</tilted></_>
    <_>
      <rects>
        <_>
          10 51 3 6 -1.</_>
        <_>
          10 54 3 3 2.</_></rects>
      <tilted>0</tilted></_>
    <_>
      <rects>
        <_>
          11 3 40 14 -1.</_>
        <_>
          21 3 20 14 2.</_></rects>
      <tilted>0</tilted></_>
    <_>
      <rects>
        <_>
          11 38 14 6 -1.</_>
        <_>
          9 40 14 2 3.</_></rects>
      <tilted>1</tilted></_>
    <_>
      <rects>
        <_>
          11 50 32 13 -1.</_>
        <_>
          19 50 16 13 2.</_></rects>
      <tilted>0</tilted></_>
    <_>
      <rects>
        <_>
          12 0 8 16 -1.</_>
        <_>
          14 0 4 16 2.</_></rects>
      <tilted>0</tilted></_>
    <_>
      <rects>
        <_>
          12 0 33 60 -1.</_>
        <_>
          23 0 11 60 3.</_></rects>
      <tilted>0</tilted></_>
    <_>
      <rects>
        <_>
          12 2 28 12 -1.</_>
        <_>
          9 5 28 6 2.</_></rects>
      <tilted>1</tilted></_>
    <_>
      <rects>
        <_>
          12 51 6 4 -1.</_>
        <_>
          12 51 6 2 2.</_></rects>
      <tilted>1</tilted></_>
    <_>
      <rects>
        <_>
          12 61 51 1 -1.</_>
        <_>
          29 61 17 1 3.</_></rects>
      <tilted>0</tilted></_>
    <_>
      <rects>
        <_>
          14 6 3 58 -1.</_>
        <_>
          14 35 3 29 2.</_></rects>
      <tilted>0</tilted></_>
    <_>
      <rects>
        <_>
          14 6 18 48 -1.</_>
        <_>
          20 6 6 48 3.</_></rects>
      <tilted>0</tilted></_>
    <_>
      <rects>
        <_>
          15 0 6 33 -1.</_>
        <_>
          17 0 2 33 3.</_></rects>
      <tilted>0</tilted></_>
    <_>
      <rects>
        <_>
          15 23 2 2 -1.</_>
        <_>
          15 23 1 1 2.</_>
        <_>
          16 24 1 1 2.</_></rects>
      <tilted>0</tilted></_>
    <_>
      <rects>
        <_>
          15 55 36 7 -1.</_>
        <_>
          27 55 12 7 3.</_></rects>
      <tilted>0</tilted></_>
    <_>
      <rects>
        <_>
          16 9 36 29 -1.</_>
        <_>
          25 9 18 29 2.</_></rects>
      <tilted>0</tilted></_>
    <_>
      <rects>
        <_>
          17 5 8 3 -1.</_>
        <_>
          21 5 4 3 2.</_></rects>
      <tilted>0</tilted></_>
    <_>
      <rects>
        <_>
          18 1 18 32 -1.</_>
        <_>
          27 1 9 32 2.</_></rects>
      <tilted>0</tilted></_>
    <_>
      <rects>
        <_>
          18 43 12 8 -1.</_>
        <_>
          16 45 12 4 2.</_></rects>
      <tilted>1</tilted></_>
    <_>
      <rects>
        <_>
          20 0 38 13 -1.</_>
        <_>
          39 0 19 13 2.</_></rects>
      <tilted>0</tilted></_>
    <_>
      <rects>
        <_>
          20 1 9 25 -1.</_>
        <_>
          23 1 3 25 3.</_></rects>
      <tilted>0</tilted></_>
    <_>
      <rects>
        <_>
          20 21 21 10 -1.</_>
        <_>
          27 21 7 10 3.</_></rects>
      <tilted>0</tilted></_>
    <_>
      <rects>
        <_>
          20 53 44 4 -1.</_>
        <_>
          42 53 22 4 2.</_></rects>
      <tilted>0</tilted></_>
    <_>
      <rects>
        <_>
          21 0 3 54 -1.</_>
        <_>
          21 27 3 27 2.</_></rects>
      <tilted>0</tilted></_>
    <_>
      <rects>
        <_>
          21 0 26 58 -1.</_>
        <_>
          21 29 26 29 2.</_></rects>
      <tilted>0</tilted></_>
    <_>
      <rects>
        <_>
          22 18 3 1 -1.</_>
        <_>
          23 18 1 1 3.</_></rects>
      <tilted>0</tilted></_>
    <_>
      <rects>
        <_>
          23 4 24 31 -1.</_>
        <_>
          35 4 12 31 2.</_></rects>
      <tilted>0</tilted></_>
    <_>
      <rects>
        <_>
          23 15 2 18 -1.</_>
        <_>
          23 15 2 9 2.</_></rects>
      <tilted>1</tilted></_>
    <_>
      <rects>
        <_>
          24 0 16 12 -1.</_>
        <_>
          28 0 8 12 2.</_></rects>
      <tilted>0</tilted></_>
    <_>
      <rects>
        <_>
          24 43 28 3 -1.</_>
        <_>
          31 43 14 3 2.</_></rects>
      <tilted>0</tilted></_>
    <_>
      <rects>
        <_>
          24 59 12 1 -1.</_>
        <_>
          28 59 4 1 3.</_></rects>
      <tilted>0</tilted></_>
    <_>
      <rects>
        <_>
          25 0 3 28 -1.</_>
        <_>
          26 0 1 28 3.</_></rects>
      <tilted>0</tilted></_>
    <_>
      <rects>
        <_>
          28 0 12 37 -1.</_>
        <_>
          31 0 6 37 2.</_></rects>
      <tilted>0</tilted></_>
    <_>
      <rects>
        <_>
          30 0 20 34 -1.</_>
        <_>
          35 0 10 34 2.</_></rects>
      <tilted>0</tilted></_>
    <_>
      <rects>
        <_>
          30 2 7 62 -1.</_>
        <_>
          30 33 7 31 2.</_></rects>
      <tilted>0</tilted></_>
    <_>
      <rects>
        <_>
          31 3 6 22 -1.</_>
        <_>
          34 3 3 22 2.</_></rects>
      <tilted>0</tilted></_>
    <_>
      <rects>
        <_>
          31 12 30 8 -1.</_>
        <_>
          31 12 15 8 2.</_></rects>
      <tilted>1</tilted></_>
    <_>
      <rects>
        <_>
          32 7 28 5 -1.</_>
        <_>
          46 7 14 5 2.</_></rects>
      <tilted>0</tilted></_>
    <_>
      <rects>
        <_>
          34 49 6 6 -1.</_>
        <_>
          37 49 3 6 2.</_></rects>
      <tilted>0</tilted></_>
    <_>
      <rects>
        <_>
          34 52 8 6 -1.</_>
        <_>
          34 52 4 3 2.</_>
        <_>
          38 55 4 3 2.</_></rects>
      <tilted>0</tilted></_>
    <_>
      <rects>
        <_>
          36 33 16 10 -1.</_>
        <_>
          40 33 8 10 2.</_></rects>
      <tilted>0</tilted></_>
    <_>
      <rects>
        <_>
          39 60 16 2 -1.</_>
        <_>
          43 60 8 2 2.</_></rects>
      <tilted>0</tilted></_>
    <_>
      <rects>
        <_>
          40 12 6 52 -1.</_>
        <_>
          43 12 3 52 2.</_></rects>
      <tilted>0</tilted></_>
    <_>
      <rects>
        <_>
          41 44 8 9 -1.</_>
        <_>
          43 44 4 9 2.</_></rects>
      <tilted>0</tilted></_>
    <_>
      <rects>
        <_>
          43 53 21 6 -1.</_>
        <_>
          50 55 7 2 9.</_></rects>
      <tilted>0</tilted></_>
    <_>
      <rects>
        <_>
          44 43 12 9 -1.</_>
        <_>
          47 46 6 9 2.</_></rects>
      <tilted>1</tilted></_>
    <_>
      <rects>
        <_>
          46 26 10 26 -1.</_>
        <_>
          46 26 10 13 2.</_></rects>
      <tilted>1</tilted></_>
    <_>
      <rects>
        <_>
          49 56 2 6 -1.</_>
        <_>
          49 56 1 6 2.</_></rects>
      <tilted>1</tilted></_>
    <_>
      <rects>
        <_>
          52 48 7 15 -1.</_>
        <_>
          52 53 7 5 3.</_></rects>
      <tilted>0</tilted></_>
    <_>
      <rects>
        <_>
          53 2 6 18 -1.</_>
        <_>
          55 8 2 6 9.</_></rects>
      <tilted>0</tilted></_>
    <_>
      <rects>
        <_>
          54 32 4 5 -1.</_>
        <_>
          55 33 2 5 2.</_></rects>
      <tilted>1</tilted></_>
    <_>
      <rects>
        <_>
          58 22 4 4 -1.</_>
        <_>
          58 22 2 2 2.</_>
        <_>
          60 24 2 2 2.</_></rects>
      <tilted>0</tilted></_>
    <_>
      <rects>
        <_>
          61 57 3 4 -1.</_>
        <_>
          61 57 3 2 2.</_></rects>
      <tilted>1</tilted></_></features></cascade>
</opencv_storage>
